digraph Tree {
0 [label="X[1] <= 45.0000\nentropy = 0.995727452085\nsamples = 13", shape="box"] ;
1 [label="entropy = 0.0000\nsamples = 2\nvalue = [ 2.  0.]", shape="box"] ;
0 -> 1 ;
2 [label="X[0] <= 1.6500\nentropy = 0.945660304601\nsamples = 11", shape="box"] ;
0 -> 2 ;
3 [label="entropy = 0.0000\nsamples = 4\nvalue = [ 0.  4.]", shape="box"] ;
2 -> 3 ;
4 [label="X[1] <= 65.0000\nentropy = 0.985228136034\nsamples = 7", shape="box"] ;
2 -> 4 ;
5 [label="entropy = 0.0000\nsamples = 3\nvalue = [ 3.  0.]", shape="box"] ;
4 -> 5 ;
6 [label="X[0] <= 1.7500\nentropy = 0.811278124459\nsamples = 4", shape="box"] ;
4 -> 6 ;
7 [label="entropy = 0.0000\nsamples = 2\nvalue = [ 0.  2.]", shape="box"] ;
6 -> 7 ;
8 [label="X[1] <= 80.0000\nentropy = 1.0\nsamples = 2", shape="box"] ;
6 -> 8 ;
9 [label="entropy = 0.0000\nsamples = 1\nvalue = [ 1.  0.]", shape="box"] ;
8 -> 9 ;
10 [label="entropy = 0.0000\nsamples = 1\nvalue = [ 0.  1.]", shape="box"] ;
8 -> 10 ;
}